%YAML:1.0
---
myHogDector: !!opencv-object-detector-hog
   winSize: [ 64, 128 ]
   blockSize: [ 16, 16 ]
   blockStride: [ 8, 8 ]
   cellSize: [ 8, 8 ]
   nbins: 9
   derivAperture: 1
   winSigma: 4.
   histogramNormType: 0
   L2HysThreshold: 2.0000000000000001e-01
   gammaCorrection: 1
   nlevels: 64
   signedGradient: 0
   SVMDetector: [ 4.02216800e-02, 4.72232327e-02, 4.92710881e-02,
       3.61097939e-02, 5.64663205e-03, 4.40260954e-02, 2.12155636e-02,
       3.15566398e-02, 5.30056395e-02, -9.30066872e-03, 2.49502677e-02,
       4.65826467e-02, 3.28424349e-02, -2.62223780e-02, -9.24527179e-03,
       -1.29098864e-02, -4.28940542e-03, -1.26508391e-02,
       -5.91145316e-03, 2.84026470e-02, 1.57254152e-02, 5.40913176e-03,
       -1.81808714e-02, 2.27625370e-02, -4.76651778e-03, 6.58698101e-03,
       -3.04179383e-03, -1.33015076e-02, -5.90926223e-03,
       -1.28791248e-02, 3.57021159e-03, -8.16570222e-03, -1.64509704e-03,
       -3.24386507e-02, -1.71021670e-02, -8.87528062e-03,
       -2.74759941e-02, 1.39124561e-02, 6.47889078e-02, 1.94688421e-02,
       5.35327988e-03, 1.50026213e-02, 2.38342164e-03, 1.25627434e-02,
       8.78350344e-03, -4.35185544e-02, -3.55735198e-02, 2.46179141e-02,
       -5.08204335e-03, 3.02619743e-03, 2.22149231e-02, 1.50860695e-03,
       7.69229420e-03, -1.64940637e-02, 3.34280683e-03, 7.07675796e-03,
       7.91941769e-03, -8.76796618e-03, -2.40582190e-02, -1.83446389e-02,
       -2.74280775e-02, -6.91010943e-03, 2.19533546e-03, -1.20906541e-02,
       -4.05744053e-02, -6.06545713e-03, -2.35175472e-02,
       -7.29889935e-03, 1.19451515e-03, -2.60850266e-02, 9.27691814e-03,
       -9.78893507e-03, 5.71519742e-03, -8.47052597e-03, 5.24999900e-03,
       -8.92721117e-03, -5.78945316e-03, -5.33709303e-03,
       -1.63660422e-02, 2.87609175e-02, 2.03318913e-02, 1.17516080e-02,
       -7.26155331e-03, -1.42974989e-03, -2.29457300e-02,
       -3.59433293e-02, -5.41549921e-03, -1.17138075e-02, 2.98354477e-02,
       2.63236258e-02, 1.14741514e-03, -2.13451385e-02, -1.57982726e-02,
       -1.64087918e-02, -1.88821496e-03, -5.65265864e-03,
       -3.22336778e-02, 2.74308734e-02, 1.65518362e-03, -1.22532267e-02,
       -3.32243480e-02, -3.59455384e-02, -2.00026873e-02,
       -4.70169596e-02, -3.36923711e-02, -3.28289457e-02,
       -9.58307181e-03, -2.00945628e-03, -1.77542660e-02, 5.69796143e-03,
       -3.88759770e-03, -1.59833152e-02, -5.08373138e-03,
       -4.66791540e-03, 2.84049683e-03, 3.55439745e-02, 2.24372628e-03,
       -2.10847035e-02, 3.30882929e-02, -1.74237415e-02, -1.12757534e-02,
       -1.58531740e-02, -1.35971429e-02, 9.94314556e-04, -1.10049974e-02,
       -3.86869200e-02, -2.01940630e-02, 4.61411336e-03, -1.99170280e-02,
       -6.07249280e-03, 4.66852973e-04, 7.77286943e-03, 2.60753557e-03,
       2.02388372e-02, 2.76793377e-03, -3.09288707e-02, 1.58988424e-02,
       1.49733089e-02, -7.93316588e-03, 8.83624796e-03, 5.38094528e-03,
       1.97739620e-02, 4.55646106e-04, -3.87417115e-02, -1.96161456e-02,
       2.07685400e-02, 9.17024445e-04, -7.14194775e-03, 4.43339959e-04,
       -2.30182912e-02, -2.26823576e-02, -2.65639834e-02,
       -3.30938920e-02, 4.83469339e-03, 3.37810293e-02, 1.55534474e-02,
       -1.17337704e-03, 6.62943785e-06, -1.75287146e-02, -8.47077649e-03,
       -2.66618785e-02, 4.21770755e-03, -2.46514995e-02, 7.53969466e-03,
       -8.91093444e-03, 1.09258546e-02, 3.11458763e-02, 1.63110979e-02,
       2.29482707e-02, 1.95602085e-02, -3.04375887e-02, 1.40334317e-03,
       1.34524610e-02, -2.53964085e-02, -3.56526338e-02, -2.57833092e-03,
       -2.57036067e-04, -1.08422693e-02, 8.83368123e-03, 1.16356066e-03,
       1.16861714e-02, 4.63410541e-02, 2.82874051e-02, 1.99008151e-03,
       4.00104746e-03, -6.88666059e-03, 2.51507219e-02, 8.58776737e-03,
       1.91252846e-02, -6.67002331e-03, 6.17309622e-02, 4.07101661e-02,
       -1.89813618e-02, -2.37566344e-02, -3.12245376e-02, 2.06695683e-02,
       2.31581628e-02, -1.59292854e-02, -7.84182549e-03, 4.02861387e-02,
       5.23186615e-03, -2.42248829e-02, -4.32992168e-03, -6.08477136e-03,
       -2.08610520e-02, -3.51716466e-02, -1.75828058e-02, 2.02179630e-03,
       2.88949534e-02, 2.01614946e-02, -2.73198560e-02, -3.52307409e-02,
       -2.03189701e-02, 1.20903207e-02, -2.20832359e-02, -1.75152998e-02,
       1.29542174e-02, 5.11365682e-02, 2.31401678e-02, -3.73068340e-02,
       5.47141163e-03, -4.01388630e-02, 7.21712876e-03, 1.46509400e-02,
       -9.67555121e-03, 8.69379751e-03, 2.41504032e-02, 1.81030594e-02,
       -9.94608551e-03, -2.15887073e-02, -2.38944367e-02, 6.89960970e-03,
       -1.47732701e-02, 2.40754499e-03, -1.51590332e-02, 7.75732333e-03,
       1.02579119e-02, -5.20706400e-02, -2.27895891e-03, -1.54760480e-02,
       2.91826334e-02, 1.31538603e-03, -6.68257987e-03, -1.56316757e-02,
       -2.08863951e-02, 9.11106728e-03, -3.39669771e-02, -5.93665941e-03,
       1.06665473e-02, 2.26934478e-02, 3.91748641e-03, 7.24354340e-03,
       -1.85568947e-02, 1.45074157e-02, 1.52685223e-02, -1.12142926e-02,
       -4.97134076e-03, -1.37973726e-02, 1.90113746e-02, 6.32562209e-03,
       3.49214883e-03, -1.11743696e-02, 1.79362465e-02, 5.84045704e-03,
       -4.86349910e-02, -8.68712552e-03, -4.77556065e-02, 8.85570981e-03,
       4.28463006e-03, -3.19020003e-02, -1.68856718e-02, 1.18399076e-02,
       9.79090948e-03, -4.49322537e-02, 2.34158244e-02, 4.67763888e-03,
       2.06875205e-02, 1.03472304e-02, -4.23765829e-04, -9.36692487e-03,
       3.39167491e-02, 3.42682451e-02, -1.76116526e-02, 1.48772718e-02,
       -5.59918359e-02, 2.06626318e-02, 6.77670818e-03, -9.17953439e-03,
       2.54972465e-02, 5.25766462e-02, 1.19633563e-02, -4.58015949e-02,
       3.58454697e-02, -4.10677344e-02, 2.35716160e-03, 9.26467963e-03,
       -5.47596393e-03, -9.38128587e-03, 3.12652513e-02, -1.05574345e-02,
       -4.33443263e-02, -2.41035521e-02, -1.85890086e-02,
       -6.28823531e-04, 2.14006970e-04, -2.08575502e-02, 3.48618254e-02,
       3.23320627e-02, 2.41392534e-02, -1.26754716e-02, 2.02634055e-02,
       -4.24972735e-02, 2.73939390e-02, -1.05039426e-03, -7.75906770e-03,
       -2.45989393e-02, -1.33049460e-02, -2.96747196e-03,
       -3.85931209e-02, -2.27476489e-02, -9.08926222e-03, 3.50576006e-02,
       2.18365528e-02, -1.48642408e-02, -1.97025351e-02, 1.59693249e-02,
       1.53009698e-03, -1.99341010e-02, 2.02028286e-02, -5.41255064e-03,
       3.26020233e-02, 1.94900855e-02, -1.85057856e-02, -6.66110497e-03,
       2.67120525e-02, 9.78711993e-03, -4.08389745e-03, -2.11146660e-03,
       -1.76938623e-02, 2.42759828e-02, 1.36227785e-02, -3.85298803e-02,
       -2.55251843e-02, -8.12828727e-03, 1.73033532e-02, -1.60718299e-02,
       -8.14127177e-03, -4.04662546e-03, 2.44700238e-02, 1.51994685e-02,
       -2.16585025e-02, -1.00749284e-02, -1.52121077e-03, 2.96994559e-02,
       -7.26014189e-03, 1.44690853e-02, -1.94052178e-02, 2.00037602e-02,
       2.59547756e-04, -1.45920087e-02, -2.95210601e-04, -9.05569084e-03,
       1.22595644e-02, -1.60726327e-02, -1.83335077e-02, -2.24852897e-02,
       1.21234749e-02, 1.30670648e-02, -6.60793576e-03, -1.63750015e-02,
       -4.36678231e-02, 2.79415864e-02, -1.35891726e-02, -1.14574982e-02,
       -2.25544479e-02, 8.03927146e-03, -8.21715780e-03, -9.85861011e-03,
       2.13797651e-02, 9.51470714e-03, 1.44624542e-02, -5.17052691e-03,
       2.01581772e-02, -1.84704196e-02, 2.57923827e-02, -8.75165965e-03,
       3.12571996e-03, 6.24376489e-03, -5.07749524e-03, 8.30490235e-03,
       -9.07302648e-03, -1.41534805e-02, -3.36466767e-02, 2.35222299e-02,
       -1.47756441e-02, 1.29930698e-03, -1.99959334e-02, -2.38426235e-02,
       8.52719881e-03, -1.40558742e-02, 9.52032674e-03, -1.87530257e-02,
       1.34031493e-02, -2.45521194e-03, -2.07481030e-02, 5.50452736e-04,
       3.35197942e-03, 9.18408483e-03, -3.39854173e-02, 6.89188857e-03,
       -2.51056086e-02, 4.14741831e-03, -6.51264004e-03, -2.95993704e-02,
       -1.10854162e-02, -1.16329873e-02, 4.29067574e-03, 2.78919074e-03,
       -2.12841164e-02, -1.90947410e-02, 1.92043558e-02, -4.18591453e-03,
       -1.05555216e-02, 2.26677824e-02, 9.19089373e-03, -3.31126794e-04,
       -2.93569602e-02, -3.50535735e-02, -1.27913840e-02, 1.32318744e-02,
       -9.43119917e-03, 2.75320956e-03, 5.99568151e-03, 1.44844493e-02,
       1.55036629e-03, -2.00529173e-02, 1.68277062e-02, -1.90417357e-02,
       -6.22502994e-03, -5.53884171e-03, -1.22256856e-02,
       -1.04029216e-02, -9.41380393e-03, -7.74644502e-03,
       -1.50522664e-02, -2.11183205e-02, -9.23593715e-03, 7.42378412e-03,
       1.94052774e-02, -8.86853132e-03, 2.29647420e-02, -8.04258976e-03,
       -1.17538497e-02, -2.54981499e-02, -1.27138412e-02,
       -1.04766265e-02, 1.08571174e-02, 8.87354277e-03, 2.19917344e-03,
       -4.44100872e-02, -1.96637698e-02, 6.49818545e-03, -2.65313070e-02,
       -4.56647389e-02, -1.02654668e-02, 2.05360241e-02, 2.28577368e-02,
       -1.18548488e-02, -7.74591579e-04, -1.68222524e-02, 8.67218431e-03,
       -1.29288174e-02, -1.97107475e-02, -1.48010877e-04, 1.30867222e-02,
       3.28771062e-02, 1.23341931e-02, 1.43723395e-02, 1.05333161e-02,
       2.84839496e-02, -1.82017963e-02, -4.08732072e-02, -1.86779127e-02,
       -8.00968427e-03, 1.25358403e-02, 1.45680774e-02, -6.35171905e-02,
       -1.24661690e-02, 3.47284530e-03, -3.24935094e-02, -7.94610661e-03,
       3.06073576e-04, 1.67786442e-02, 2.44779084e-02, -2.00139619e-02,
       -4.22297455e-02, -1.48773566e-02, -2.81143971e-02,
       -3.59159373e-02, -3.38339508e-02, -3.84017220e-03, 1.39025422e-02,
       2.12941803e-02, -8.71939212e-03, -9.04883444e-03, -2.99458369e-03,
       -1.68437837e-03, -6.05829526e-03, 3.43582965e-03, -1.37797035e-02,
       -8.96843988e-03, 1.34208873e-02, 7.14050280e-03, -3.40646505e-02,
       -2.99477447e-02, -3.19483206e-02, -4.13549095e-02,
       -4.57753949e-02, 7.63775362e-03, 1.99573282e-02, 2.39734948e-02,
       2.36002076e-02, -4.20376062e-02, -9.82717518e-03, -2.92573292e-02,
       -2.68294588e-02, -1.98528357e-02, -1.61639452e-02,
       -2.25538481e-03, 3.12026171e-03, -1.70757864e-02, -1.29637420e-02,
       1.15942094e-03, -1.72711760e-02, -7.25630298e-03, -4.18546945e-02,
       -1.67966019e-02, -1.49007486e-02, -2.57604709e-03, 6.35230355e-03,
       5.80855785e-03, 4.08570655e-02, 9.63001139e-03, 1.85098425e-02,
       -2.02904362e-03, 2.68387347e-02, 2.79190689e-02, 1.48131922e-02,
       -4.14552912e-03, 9.65378527e-03, -6.34578988e-04, -3.82654816e-02,
       -7.76178436e-04, 9.56420880e-03, -2.79100309e-03, -1.97235052e-03,
       9.71355196e-03, -1.08616091e-02, 5.71446912e-03, 1.59822609e-02,
       -2.44404990e-02, 5.54253673e-03, 6.91373879e-03, 4.50892746e-02,
       3.65085714e-02, 1.73319168e-02, 9.18225385e-03, -5.26455641e-02,
       -3.06530041e-03, -8.74998607e-03, -1.66562404e-02,
       -1.89094804e-02, 9.41511616e-03, 2.43794248e-02, 8.87840241e-03,
       -3.07740290e-02, -1.61360879e-03, 1.43237710e-02, -9.24646575e-03,
       -7.05609238e-03, -1.23779066e-02, 9.51792579e-03, 1.11357262e-02,
       2.41709985e-02, -3.99314042e-04, 2.31188838e-03, -2.45668693e-03,
       -9.01701220e-04, -1.76925473e-02, 1.20954756e-02, 1.52907195e-03,
       1.50855267e-04, 5.24196634e-03, -9.11615731e-04, -4.30460311e-02,
       -4.33239248e-03, 1.73511263e-02, 2.00244971e-02, -1.08589996e-02,
       1.87006369e-02, 1.23000015e-02, 2.45073810e-02, -2.04415675e-02,
       -2.56596971e-02, -2.72226892e-02, -2.65290421e-02,
       -3.61561812e-02, 4.36714711e-03, 8.35264008e-03, -4.07596026e-03,
       -2.65044998e-03, 4.68827877e-03, 1.17462091e-02, -4.80367476e-03,
       -9.67227109e-03, -5.57201216e-03, 2.11657211e-02, 8.18602834e-03,
       8.69131833e-03, 2.83587389e-02, -6.61297282e-03, -5.17182425e-03,
       -5.49958739e-03, -1.34933125e-02, 1.70735419e-02, 2.45213136e-02,
       9.29813087e-03, -4.50123008e-03, -1.11899041e-02, -1.81081649e-02,
       2.40158453e-03, -1.11690201e-02, -2.75121927e-02, -2.61049848e-02,
       -2.21210551e-02, 4.15661000e-03, 2.20988505e-03, -6.55599451e-03,
       2.10859627e-02, -2.02723946e-02, -6.29568021e-05, 4.86910576e-03,
       -4.82601067e-03, -2.29844898e-02, -1.53941009e-02,
       -1.37551725e-02, -2.00660601e-02, 2.03836393e-02, 8.56897503e-04,
       2.76545784e-03, -1.70190237e-03, 1.11136623e-02, 1.92259494e-02,
       4.32614062e-04, -6.13895536e-04, -6.43022871e-03, 7.19240459e-04,
       -7.01913750e-03, 1.67197585e-02, 4.19432223e-02, 6.41970756e-03,
       3.94604588e-03, -1.11200642e-02, -6.22698851e-03, 5.10693993e-03,
       -1.03482082e-02, -4.08202130e-03, 2.26544160e-02, 1.68172289e-02,
       3.55782686e-03, -1.00808693e-02, -2.32796352e-02, -5.21736825e-03,
       4.82828915e-03, -1.94273610e-02, -4.14496055e-03, 3.14581767e-02,
       2.64906827e-02, -1.19531453e-02, -3.31111625e-02, -3.08857318e-02,
       -1.29304873e-02, -4.87573911e-03, -3.46500352e-02,
       -1.60534177e-02, 2.08177846e-02, 3.53825204e-02, 2.11416949e-02,
       4.95863110e-02, -1.23838347e-03, -5.24683716e-03, 2.57432498e-02,
       3.61695857e-04, 8.48205062e-04, 1.47487372e-02, 1.10643590e-03,
       -1.55655043e-02, 1.67193580e-02, -1.11232838e-02, -1.44468201e-02,
       1.47873946e-02, -9.62818787e-03, -2.07785629e-02, 1.31922085e-02,
       1.48088075e-02, -1.16391375e-03, 4.90417192e-03, -1.42947603e-02,
       -9.81873926e-03, 6.51390105e-03, -2.86908150e-02, -3.58277699e-03,
       -7.45872268e-03, -2.45264289e-03, 1.35823693e-02, 8.20744972e-05,
       1.72529686e-02, -9.26856045e-03, 1.12948474e-02, -1.74464844e-02,
       7.84748513e-03, 3.38349268e-02, 2.17455607e-02, -1.91603377e-02,
       -2.51523941e-03, 5.81484754e-03, -1.58308782e-02, -1.14542851e-02,
       -6.82513183e-03, -1.55758057e-02, 7.53967045e-03, -7.29092164e-03,
       -4.52537239e-02, -7.06216879e-03, 1.09186452e-02, 3.13024316e-03,
       -2.25774758e-02, -2.83036884e-02, 1.51867792e-02, 2.97209974e-02,
       1.62580106e-02, -3.36075039e-03, -2.20837002e-03, -1.66284330e-02,
       -1.42784743e-02, 4.07384941e-03, -6.21791882e-03, -1.39857773e-02,
       1.10149449e-02, -2.72922106e-02, -2.15192586e-02, -2.89491173e-02,
       -8.97473004e-03, -1.77778751e-02, -2.28501344e-03, 5.69441216e-03,
       -4.17668605e-03, 2.97298352e-03, -1.14416722e-02, -6.22134283e-02,
       2.33708993e-02, 1.86594501e-02, 2.44570896e-02, 1.04689496e-02,
       1.75654714e-03, -1.95669103e-02, 1.02706999e-03, 9.63667966e-03,
       -4.93038483e-02, 1.72169544e-02, -1.76326409e-02, 7.98324682e-03,
       1.24766110e-02, 9.31605976e-03, 2.29821075e-02, 1.13524674e-02,
       -3.04143857e-02, -2.83847116e-02, 8.30559526e-03, -3.41978949e-03,
       4.59206814e-04, -2.83195800e-03, 3.32379974e-02, 7.51786772e-03,
       1.92757249e-02, 2.33159438e-02, -3.01092844e-02, -3.46033797e-02,
       -6.99740043e-03, 2.06270418e-03, -2.13620928e-03, 2.60661133e-02,
       -9.27958544e-03, 3.44463773e-02, 2.47812793e-02, -3.58933508e-02,
       3.03630363e-02, -2.27267258e-02, -8.80321022e-03, 3.95783549e-03,
       1.39201144e-02, -4.69508534e-03, 3.13088819e-02, 2.56180167e-02,
       -1.95502974e-02, 3.19285952e-02, -1.63571835e-02, -1.04872631e-02,
       -6.14773156e-03, 1.27881125e-03, 1.82518810e-02, 4.34693284e-02,
       1.75904892e-02, -1.28241424e-02, -4.84959669e-02, -3.37125771e-02,
       -2.10894775e-02, -7.14988774e-03, 9.71957017e-03, 2.23943940e-03,
       -3.69334035e-02, -2.37023588e-02, -2.44095903e-02,
       -1.34380991e-02, -1.27790391e-03, 1.66289341e-02, 1.36724701e-02,
       8.28880351e-03, 9.53043532e-03, 2.45406162e-02, 2.85223778e-02,
       -1.15920408e-02, 1.74605381e-02, -2.39699315e-02, -6.61618216e-03,
       -1.84164979e-02, -7.16684666e-03, -2.92232540e-03, 1.07317055e-02,
       6.76626060e-03, -1.37559073e-02, 2.58368021e-03, 2.22072657e-02,
       -3.03843524e-03, -2.22016517e-02, -3.67429527e-03, 2.33757552e-02,
       -9.64384526e-03, 9.64436308e-03, 1.27280438e-02, 2.37685628e-02,
       2.75673531e-03, 7.61137670e-03, 1.41842803e-02, 4.04979289e-03,
       -7.54311681e-03, 1.40718082e-02, 2.02866886e-02, 1.85117368e-02,
       -2.75309477e-02, 8.38945713e-03, -6.66167680e-03, -2.38347910e-02,
       -2.13376665e-03, 9.88405384e-03, -2.43015541e-03, 1.99741647e-02,
       -1.68576147e-02, 5.37614431e-03, 9.45208874e-03, 1.35230448e-03,
       -1.75090861e-02, -3.53369373e-03, 4.17036295e-04, -1.20639727e-02,
       2.50414875e-03, -1.52625879e-02, -2.88994070e-02, -5.37769757e-02,
       -2.12053172e-02, -1.28582092e-02, -2.50296183e-02, 2.65056100e-02,
       2.20084656e-02, 3.65221165e-02, 1.04004955e-02, -2.13384023e-03,
       9.75647941e-03, 2.59969756e-02, -2.60560308e-02, 1.18144518e-02,
       1.00001860e-02, -1.74233560e-02, 1.51147768e-02, 1.32557247e-02,
       -3.45205739e-02, -2.66638864e-02, 2.81275413e-03, -8.68772622e-03,
       9.67267994e-03, -8.48868862e-03, -6.12353859e-03, 4.61717742e-03,
       -1.72420852e-02, 1.95420478e-02, -3.77417579e-02, 2.09131348e-03,
       1.50095075e-02, -5.49446279e-03, -1.91772729e-02, -3.09743220e-03,
       9.86203179e-03, -2.52621481e-03, 7.78797362e-03, -4.22265679e-02,
       8.27264227e-03, -5.25672967e-03, -1.78402569e-02, 5.69426641e-03,
       7.95263983e-03, 8.65296181e-03, 4.28825011e-03, 1.71838030e-02,
       -7.74545223e-03, 6.58933865e-03, -3.84427025e-03, 1.64500698e-02,
       -1.99088082e-02, 8.45024642e-03, 8.76641087e-03, -3.68694030e-03,
       -2.86986846e-02, -5.94788976e-03, 1.22291436e-02, -1.28247580e-02,
       -4.45775222e-03, -1.22906137e-02, -4.39665746e-03, 1.40698664e-02,
       7.06252269e-03, 6.58737076e-03, -3.04612927e-02, 2.67124511e-02,
       9.11935698e-03, 5.39303001e-04, -6.62582461e-03, -3.51176877e-03,
       -1.91367306e-02, -1.23516610e-02, -1.48547431e-02,
       -5.13984822e-03, 1.80187393e-02, 1.93927251e-02, -5.69108594e-03,
       -1.55832786e-02, 1.06076682e-02, 8.65738955e-04, 1.18824448e-02,
       -1.61670670e-02, -2.75052544e-02, -8.88254587e-03,
       -1.67957582e-02, -1.06988866e-02, -2.19586734e-02, 7.46214623e-03,
       -6.77624298e-03, -1.10948170e-02, -3.24805230e-02,
       -2.72043459e-02, 1.00837266e-02, -1.76407993e-02, 8.43883771e-03,
       4.32038074e-03, -7.57369678e-03, -9.87722725e-03, -2.19763536e-02,
       3.27365920e-02, -1.46679683e-02, 2.71177082e-03, 2.11689100e-02,
       2.57187597e-02, -3.50849777e-02, 3.41253355e-04, 1.20706903e-02,
       6.31420454e-03, -2.13006660e-02, -2.14789696e-02, -6.50302973e-03,
       -1.55762229e-02, -1.84573643e-02, -2.75683999e-02, 1.10253133e-02,
       -2.08235960e-02, -1.94837097e-02, -2.52428558e-03,
       -1.84883829e-02, -4.06269275e-04, -1.23328827e-02,
       -1.12716872e-02, 9.28836502e-03, 2.55251266e-02, 3.38792577e-02,
       -5.44799259e-03, -6.19180575e-02, -4.11715843e-02,
       -1.55324899e-02, -3.32217179e-02, 1.59310421e-03, -4.90435027e-02,
       -8.79958831e-03, 1.38382139e-02, -1.45364190e-02, 3.14166546e-02,
       1.29572358e-02, 1.19592017e-02, -3.18022235e-03, -1.79477856e-02,
       -4.82842326e-02, -2.84082927e-02, -2.83334404e-02,
       -7.79088587e-03, -7.93818105e-03, 2.87914835e-03, 2.51901038e-02,
       1.34057868e-02, -1.40145943e-02, -1.33547867e-02, 1.92317218e-02,
       3.53580005e-02, -2.59902123e-02, -2.87326332e-02, 3.65983183e-03,
       2.78601632e-03, -2.67853122e-02, -1.79917030e-02, -5.87881077e-03,
       2.29583727e-03, 2.84021180e-02, -2.60941796e-02, -5.11652976e-02,
       -1.53191695e-02, 3.25353108e-02, 2.51651439e-03, 1.13808066e-02,
       -4.43741493e-02, -1.77204870e-02, -2.82876603e-02,
       -2.55546905e-03, -8.72299541e-03, -1.80561766e-02, 5.34795457e-04,
       1.04844924e-02, -1.89824607e-02, 1.34696101e-03, -4.79450123e-03,
       -1.98855866e-02, -1.73265636e-02, -1.23707457e-02,
       -1.28056081e-02, -1.37977600e-02, -2.12701410e-02,
       -1.72137320e-02, 5.08813327e-03, 5.21721737e-03, -1.28229777e-03,
       -1.85445249e-02, 1.04051107e-03, -2.85614729e-02, 8.30290932e-03,
       9.36851464e-03, 4.35758103e-03, 1.52028939e-02, 1.44307008e-02,
       2.08760221e-02, -3.77340578e-02, -1.23638054e-02, -3.33769768e-02,
       -7.00834149e-04, -1.54336393e-02, 2.29358561e-02, 2.62358431e-02,
       3.97148430e-02, 1.58928544e-03, -4.55351360e-03, 3.48897316e-02,
       3.81035879e-02, -2.34339759e-02, -2.53212568e-03, -1.28023776e-05,
       -2.27926695e-03, 3.91459242e-02, 3.87828313e-02, -1.05842454e-02,
       2.68176664e-02, 1.03575671e-02, -1.61478680e-03, 1.85837410e-03,
       8.35617632e-03, 2.21372172e-02, 2.30203420e-02, -1.08842812e-02,
       4.13077325e-03, 4.00088355e-03, 1.58277620e-02, 9.15465690e-03,
       1.28592309e-02, 2.47938130e-02, -2.74944156e-02, -7.59615004e-03,
       -2.80724075e-02, -6.09514909e-03, 1.57310050e-02, 2.14831959e-02,
       1.54395029e-02, 1.80448790e-03, -7.21370103e-03, -6.86485320e-03,
       4.01886320e-03, 3.34704891e-02, 1.47461984e-02, 2.62994803e-02,
       1.62926444e-03, -4.32130502e-04, 1.76318940e-02, 7.42920162e-03,
       8.57634656e-03, 1.18729072e-02, 1.25945662e-03, -1.55363334e-02,
       -6.53802091e-03, 1.04875946e-02, -8.06027651e-03, 1.40389602e-03,
       -1.54170056e-03, -1.57783721e-02, 1.14924219e-02, 2.42930949e-02,
       1.88901704e-02, -1.63322091e-02, 8.43545143e-03, 1.96148120e-02,
       2.53318576e-04, 2.33733305e-03, -1.38470037e-02, 1.69957709e-03,
       2.61125620e-03, -8.32535606e-03, -1.58968177e-02, 2.00045425e-02,
       1.15107764e-02, 1.41597036e-02, 1.94903314e-02, 1.98250841e-02,
       1.28444936e-02, 4.54166293e-04, -8.83796345e-03, -1.22265145e-02,
       1.65149360e-03, -2.83354092e-02, 7.24961190e-03, 7.15701189e-03,
       -7.25685712e-03, 8.35023541e-03, 1.19210845e-02, -3.40272044e-03,
       -1.98376458e-02, -3.34122218e-02, 1.56888366e-02, 1.07068392e-02,
       1.03536267e-02, -1.43149104e-02, 1.40795950e-02, 1.09652439e-02,
       6.45775907e-03, -1.81381106e-02, 2.56738178e-02, -5.63138351e-03,
       3.13718058e-02, -1.17311636e-02, -1.32405013e-02, -1.60555746e-02,
       -1.62813216e-02, 3.99811100e-03, -2.26362550e-04, -4.43521747e-03,
       1.41457869e-02, 9.94433556e-03, -2.66837627e-02, 1.30717438e-02,
       3.65589485e-02, 2.85474751e-02, 2.28122156e-03, -6.81676716e-03,
       -1.80378705e-02, 1.07412785e-02, 1.52218668e-02, 1.03267673e-02,
       2.46587489e-02, 3.40104625e-02, 2.52335165e-02, -1.72982737e-02,
       -2.16157977e-02, -2.40386762e-02, -3.02312039e-02,
       -1.75099615e-02, -2.79610977e-02, -2.53683794e-03, 7.66037172e-03,
       5.41715929e-03, -6.78377552e-03, -1.33773908e-02, 9.89792496e-03,
       5.46146592e-04, 3.07044527e-03, -2.35003041e-04, 2.08852384e-02,
       3.87171889e-03, 2.32906044e-02, -2.36830004e-02, -4.18227389e-02,
       -1.32999299e-02, -4.49801050e-03, 6.36371737e-03, -7.10832234e-03,
       7.87555333e-03, 1.11053269e-02, -6.38446864e-03, -1.70999635e-02,
       -2.96126283e-03, -1.37317292e-02, -1.48374746e-02,
       -7.17392191e-04, 1.83366193e-03, 5.02335234e-03, 2.12592334e-02,
       -3.03286943e-03, 4.21999069e-03, 3.30283567e-02, 4.00482304e-03,
       -1.83800084e-03, 1.41822444e-02, -1.01804372e-03, 1.18980939e-02,
       -2.00161487e-02, 4.42492357e-03, -7.05701439e-03, -2.61646826e-02,
       -2.21836437e-02, 1.82243846e-02, 2.15654820e-03, -2.06203274e-02,
       -4.82420856e-03, -2.80174911e-02, -3.75641300e-03,
       -7.80589180e-03, -8.94560537e-04, -4.99988766e-03, 9.25884116e-03,
       1.09654823e-02, 5.57929790e-03, -9.81798489e-03, 9.66748595e-03,
       1.31445273e-03, -2.47137342e-02, 8.17764644e-03, -2.07491145e-02,
       -1.08184554e-02, 2.65455339e-02, -1.27375592e-03, 5.03181340e-03,
       7.96753168e-03, -1.02715325e-02, -2.00393163e-02, -2.90044844e-02,
       -1.31602278e-02, 1.31102081e-03, 1.42472833e-02, -1.53182202e-03,
       -4.19323472e-03, -8.88829958e-03, -1.47190085e-02,
       -3.79701033e-02, -3.36241536e-02, -2.33600778e-03, 1.36325443e-02,
       1.38531439e-02, 1.76779914e-03, 1.53524801e-02, 4.11374168e-03,
       8.95135477e-03, -2.32807323e-02, -2.96955854e-02, 1.18718334e-02,
       3.31055745e-02, 1.55495219e-02, 4.14234446e-03, 1.59121919e-02,
       1.90785397e-02, 4.64886287e-03, 1.03039183e-02, 1.87862273e-02,
       -1.01995431e-02, -8.13039206e-03, 1.16398139e-02, 2.55562440e-02,
       -1.61462985e-02, 1.25057055e-02, 1.74959265e-02, -1.76059864e-02,
       4.54556849e-03, -1.79767162e-02, -1.83407671e-03, -5.64998388e-03,
       2.63610249e-03, 3.26383114e-02, 9.37409326e-03, 1.80279724e-02,
       1.71215627e-02, 1.13012944e-03, 2.63792463e-03, -4.74693114e-03,
       -1.02456622e-02, -3.19488556e-03, -2.31727548e-02,
       -3.70849110e-02, -5.14369318e-03, -1.37280263e-02,
       -1.26124565e-02, 1.22790001e-02, 1.34274336e-02, 1.56162959e-03,
       -2.86350609e-03, -1.22148274e-02, 1.82476863e-02, 1.10689178e-02,
       -7.15388404e-03, 6.51072152e-03, -1.97483469e-02, 4.50139912e-03,
       -8.65664892e-03, -7.28329783e-03, -8.17936193e-03,
       -5.45084802e-03, -7.32094864e-04, 1.04545332e-04, 2.00572442e-02,
       -1.83531735e-03, 3.11934222e-02, 2.98557617e-02, -7.60072935e-03,
       -1.18698655e-02, -2.65721027e-02, -4.39863792e-03,
       -1.92902493e-03, 2.58889366e-02, -6.70461636e-03, 1.98834985e-02,
       -2.02065939e-03, -7.43652508e-03, 9.84006841e-03, -1.04298699e-03,
       2.93900575e-02, -1.67888813e-02, 2.03807853e-04, -7.29855476e-03,
       4.78661470e-02, 9.88923665e-03, -6.41144952e-03, 1.01754284e-02,
       1.16888268e-05, -1.96185219e-03, -4.52084886e-03, 2.83290055e-02,
       -1.14700990e-02, 3.56517285e-02, 3.30188833e-02, 5.59694041e-03,
       5.85491257e-03, 6.04307512e-03, 2.93495948e-03, 2.83411238e-02,
       1.30723184e-02, 1.29757135e-03, 1.95784736e-02, -2.79215327e-03,
       2.50722072e-03, -4.21528798e-03, 2.78295949e-03, 3.21779260e-03,
       -2.60250736e-02, -7.43472297e-03, -1.91230495e-02, 5.61839454e-02,
       1.30656548e-02, -1.23789981e-02, -1.04590934e-02, -2.55710892e-02,
       -2.18152776e-02, 6.45500980e-03, -3.24482433e-02, 3.87529097e-03,
       5.34735881e-02, -1.26252661e-03, -1.56446416e-02, 1.83183569e-02,
       1.75522454e-02, 1.08681405e-02, 2.32184231e-02, 1.92025248e-02,
       -2.63642287e-03, 3.54591161e-02, 1.34013186e-03, 7.16258073e-03,
       -4.01817262e-04, 8.81190132e-03, 1.17243538e-02, 1.08601190e-02,
       1.10888528e-03, -6.96695270e-03, -5.19159774e-04, -1.73473004e-02,
       -6.06194895e-04, 4.89113899e-03, -1.30702471e-02, 2.25353451e-03,
       -7.43254879e-03, 8.64841393e-04, -1.28468750e-02, 2.47984435e-02,
       -1.02730412e-02, -5.72712393e-03, -7.25563150e-03, 2.91247177e-03,
       5.21815103e-03, -2.53854375e-02, -3.40564512e-02, -3.24082449e-02,
       -1.03363199e-02, -3.89666483e-03, 1.45195564e-02, -1.07633322e-02,
       4.89269849e-03, 1.63443238e-02, -1.80275328e-02, 2.00032946e-02,
       1.87640730e-02, 1.24040693e-02, 6.14073873e-03, 4.31882963e-03,
       -9.33112390e-03, 2.15350911e-02, 9.97256674e-03, -1.21550104e-02,
       -2.43176147e-02, 2.41575763e-02, 2.41610147e-02, 2.88989581e-03,
       -1.43508418e-02, -6.91702683e-03, 7.81860203e-04, 8.38198420e-03,
       -3.77128199e-02, -1.55118965e-02, -2.46107895e-02, 1.33986473e-02,
       2.69841049e-02, -1.10270958e-02, -2.60647642e-03, 2.10420880e-02,
       2.92114224e-02, 1.69554707e-02, -5.65550616e-03, -3.41925304e-03,
       3.89749520e-02, 8.61831382e-03, -6.78526377e-03, -1.01280976e-02,
       4.72742179e-03, 1.38805732e-02, 3.89043987e-03, -9.82169341e-03,
       -1.34130623e-02, -2.07351428e-03, -1.50158703e-02,
       -1.06747476e-02, -2.99150292e-02, 2.18539382e-03, 2.99066392e-04,
       -1.13395005e-02, -1.67538226e-02, -2.30597965e-02, 1.30850924e-02,
       -8.88634764e-04, -1.06979758e-02, 1.38568496e-02, -5.23235602e-03,
       6.86442154e-03, 1.42385103e-02, 2.98833731e-03, -3.03177852e-02,
       4.33114022e-02, 3.25706205e-03, 1.90038066e-02, 1.05965845e-02,
       -1.31564327e-02, 8.94308742e-03, -2.02644914e-02, -5.71028702e-03,
       -1.40532339e-02, 9.35846940e-03, 2.13500913e-02, 2.29247734e-02,
       -2.78200544e-02, 5.96345495e-03, -4.45757480e-03, -3.37488484e-03,
       3.59446034e-02, 8.51122313e-04, 1.60520989e-02, 1.26630189e-02,
       -1.02349166e-02, -2.82127876e-02, 5.14825992e-03, -8.13503750e-03,
       -1.06359683e-02, -1.16935065e-02, -2.68298779e-02, 1.37342596e-02,
       3.37730884e-03, -1.90804321e-02, -2.27074046e-02, -1.76469591e-02,
       -7.04739243e-03, 3.40942363e-03, 8.33626650e-03, -3.58372671e-03,
       -1.12829404e-02, 2.69904267e-03, 4.46473248e-03, -6.65495358e-03,
       -3.14169563e-03, -1.04185073e-02, -6.43548602e-03,
       -1.68678463e-02, -1.71873719e-02, 9.82450508e-03, 9.58446227e-03,
       -1.08342171e-02, -3.37376483e-02, 1.70185659e-02, 1.52954170e-02,
       -2.32330505e-02, -2.31932080e-03, -8.76277778e-03, 3.30231106e-03,
       6.26442721e-03, -1.69076677e-02, -2.54099742e-02, 1.38625205e-02,
       4.95427335e-03, -3.20845358e-02, 5.83161833e-03, -9.93506517e-03,
       2.89222561e-02, 9.49112233e-03, -1.97376553e-02, -3.35198548e-03,
       4.74134926e-03, -2.43326090e-02, -1.77912805e-02, -3.77614424e-02,
       -3.15242745e-02, -1.91196315e-02, -3.47827515e-03,
       -2.12878715e-02, -3.15608084e-02, 9.28564556e-03, -1.39827058e-02,
       -5.28369937e-03, -3.33824828e-02, -2.32567284e-02,
       -2.74879788e-03, -2.61371154e-02, -7.32408604e-03,
       -2.64566708e-02, 1.98842902e-02, 1.78037416e-02, -7.98657816e-03,
       2.19653975e-02, -8.69989023e-03, 1.98736675e-02, 5.79739595e-03,
       -7.65268924e-03, -1.14010042e-02, 2.34525483e-02, 3.20549980e-02,
       -5.52942827e-02, -2.02879682e-02, -2.60164905e-02, 4.52638045e-03,
       4.71523497e-03, -1.06755951e-02, -3.11179962e-02, -1.19042145e-02,
       -2.40084827e-02, 1.99265238e-02, 3.92648950e-03, -1.91536583e-02,
       9.46587324e-03, -9.08218790e-03, -1.60545055e-02, -2.03045495e-02,
       -4.32419218e-02, -3.37224230e-02, -7.98618495e-02,
       -3.52235585e-02, -2.16620583e-02, 6.76925387e-03, 1.43979331e-02,
       -5.76603040e-03, 3.68808135e-02, 2.37465613e-02, 9.42774210e-03,
       -1.49983109e-03, 2.82896776e-03, 1.25309452e-03, 1.46902027e-02,
       2.37221587e-02, 2.08446197e-02, 4.17543110e-03, 1.37168672e-02,
       4.19214927e-03, 4.92059765e-03, 9.73804016e-03, -1.06763802e-02,
       1.55828735e-02, 4.98909550e-03, -7.75343506e-03, 2.40423419e-02,
       3.39137204e-02, 1.23362169e-02, 5.31367911e-03, -7.09542399e-03,
       4.79918625e-03, 3.73462215e-03, 2.65553910e-02, 7.74858007e-03,
       -8.76676640e-04, 2.73063909e-02, 1.16079990e-02, 6.00216677e-03,
       -1.92471389e-02, -6.21210178e-03, 2.71802000e-03, -2.97612580e-03,
       -1.17945028e-02, 3.44952545e-03, 1.36220781e-02, 3.09247617e-02,
       6.04695920e-03, 7.05960265e-04, 1.18506718e-02, 1.80304535e-02,
       2.41000880e-03, 1.36672589e-03, -1.89986564e-02, -2.01960735e-04,
       4.51281620e-03, -7.63287349e-03, 5.25974436e-03, -1.53781641e-02,
       -3.17623615e-02, -1.53983189e-02, 9.05664521e-04, 2.01915763e-02,
       -8.58254265e-03, -6.78943424e-03, 1.41594615e-02, -2.10444797e-02,
       1.65852308e-02, 1.45243537e-02, 4.92590060e-03, 1.81929618e-02,
       1.03244027e-02, -1.52358543e-02, -1.12922881e-02, 2.67304908e-02,
       -2.13938374e-02, -2.62866467e-02, -1.12957675e-02, 6.85116230e-03,
       2.76895780e-02, -2.50177737e-02, 1.18724108e-02, 1.70239843e-02,
       -1.23164626e-02, 3.25860381e-02, 5.58128301e-03, -1.22479973e-02,
       1.24282576e-02, -8.96024797e-03, -8.08286201e-03, 1.08875362e-02,
       -5.71833085e-03, -1.82696003e-02, 2.97466666e-02, 1.66785214e-02,
       7.19151087e-03, -1.46509670e-02, -4.43432201e-03, -6.86723785e-03,
       6.20939024e-03, 1.69618055e-02, -2.79875030e-03, -1.58910286e-02,
       -5.10731898e-03, -1.09015470e-02, -3.42454365e-03,
       -1.99465491e-02, 6.96935086e-03, 7.93698058e-03, 5.76288020e-03,
       -8.02121777e-03, 8.67339317e-03, 1.93604920e-02, -2.06756089e-02,
       -3.53552625e-02, -1.45602087e-02, 1.70402369e-03, 1.91578001e-03,
       -1.56066446e-02, -2.10859198e-02, 7.20668957e-03, 2.18101200e-02,
       1.54205447e-03, 9.19779763e-03, 6.75674807e-03, -1.00920750e-02,
       -4.21834504e-03, -9.89589654e-03, -2.37550698e-02,
       -2.62620170e-02, -5.63381054e-03, -2.75353435e-03,
       -3.88221862e-03, -1.44969421e-02, 2.26050839e-02, 1.00647509e-02,
       -1.07921176e-02, -1.09239630e-02, -1.89278852e-02, 3.18414159e-02,
       2.24566627e-02, 2.69825570e-02, 9.57976561e-03, 2.86483411e-02,
       -4.38187318e-03, -1.35865100e-02, -6.30143506e-04,
       -1.99471023e-02, 2.39326376e-02, 3.49332951e-03, 1.21356556e-02,
       1.92484893e-02, -8.05777218e-03, 1.10781137e-02, 1.24950521e-02,
       1.26801226e-02, 2.32510045e-02, -9.39020608e-03, 3.81915867e-02,
       6.70107920e-03, -1.42448265e-02, -1.07471421e-02, -3.15085566e-03,
       1.15108117e-02, 1.21993003e-02, 1.89148951e-02, -7.97007419e-03,
       1.09362211e-02, -1.57112796e-02, -1.99294724e-02, 9.56266932e-03,
       1.52708357e-02, 4.31708712e-03, 2.38832296e-03, -1.89380045e-03,
       3.62405600e-03, 2.10151691e-02, 2.26704013e-02, -4.76407493e-03,
       -5.68893366e-03, -4.25671320e-03, 1.88828614e-02, 1.19168079e-02,
       -3.15170502e-03, -1.58000700e-02, 1.67698693e-02, -1.24859214e-02,
       -1.57859344e-02, -1.40678389e-02, 2.52966140e-03, 7.43674859e-03,
       -9.15926881e-03, 2.99502350e-02, -2.32066005e-03, 6.76879426e-04,
       -9.81346052e-03, -7.02357106e-03, 2.65632151e-03, 1.31852515e-02,
       3.73569019e-02, 3.09991594e-02, 4.67021540e-02, 1.36176590e-02,
       1.76118538e-02, 2.72132736e-03, -5.83797088e-03, 3.21771130e-02,
       6.99620834e-03, 7.74562219e-03, 1.23532936e-02, -1.50467018e-02,
       -2.92797256e-02, -2.93332385e-03, 1.55171135e-03, 3.10502015e-02,
       1.33698462e-02, -9.77216754e-03, 1.08502945e-02, 3.07074059e-02,
       -1.58439633e-02, -9.35798883e-03, 4.99540474e-03, -2.80587915e-02,
       1.97229963e-02, 1.68044623e-02, 6.34454982e-03, 2.12300904e-02,
       2.04280596e-02, 5.13041802e-02, 2.39865780e-02, 6.46631885e-03,
       -3.97583842e-03, -7.04972958e-03, -5.05510252e-03,
       -2.47771554e-02, -3.29008289e-02, -2.00650785e-02, 1.53069319e-02,
       1.54619236e-02, 1.65867116e-02, -1.73289806e-03, 3.21200094e-03,
       1.42967338e-02, -5.25008654e-03, -1.52489571e-02, 1.85030699e-03,
       3.41553404e-03, 1.44718764e-02, 1.82054546e-02, -4.11838805e-03,
       -1.41011714e-03, 3.27671319e-02, -9.46913566e-03, -4.91567596e-04,
       -3.37762497e-02, -1.15643693e-02, -1.57114919e-02, 2.39530560e-02,
       4.27281717e-03, 1.50922006e-02, -2.23271959e-02, -2.52500325e-02,
       -3.07038054e-02, -8.63164943e-03, 4.10304852e-02, -1.76891871e-02,
       2.26578545e-02, 4.44422150e-03, 7.86696374e-03, -4.07794258e-03,
       -1.33883664e-02, 2.70275380e-02, -2.47023534e-02, 1.44354785e-02,
       -1.68330930e-02, 3.59401442e-02, -6.54350081e-03, -2.84514204e-02,
       1.01910997e-02, -1.44128571e-03, 1.29999500e-02, -2.68500810e-03,
       1.23349465e-02, -2.46058721e-02, -8.24433099e-03, 1.26760677e-02,
       5.06596453e-03, 4.07163665e-04, 2.19178642e-03, 3.85506190e-02,
       -1.71811786e-02, 5.36341127e-03, -2.15098192e-03, 2.34824214e-02,
       9.84949898e-03, -4.72134259e-03, -6.82885153e-03, 3.93289607e-03,
       1.24449106e-02, -3.26802507e-02, 3.56787629e-03, -2.07960308e-02,
       1.24903414e-02, -1.12116365e-02, -3.87421586e-02, 1.23313523e-03,
       3.04100150e-03, -7.30210263e-03, -9.07421950e-03, -6.02840306e-03,
       9.45543405e-03, 1.49311414e-02, -2.62392499e-02, -1.15831643e-02,
       2.00492330e-02, 1.81421079e-02, 2.22887006e-02, -2.11497881e-02,
       2.35916656e-02, -1.52219674e-02, 5.18101919e-03, -2.10924130e-02,
       -7.53273675e-03, 9.91250481e-03, -1.69562991e-03, -6.89158030e-03,
       -1.11225275e-02, -1.98138896e-02, -2.50605941e-02,
       -5.62637486e-03, -3.56820896e-02, 8.34633224e-03, 4.42768820e-03,
       -9.19565279e-03, 6.79478841e-03, -1.22721232e-02, 3.61651331e-02,
       5.70391957e-03, 1.49091883e-02, -4.14646277e-03, -1.06341196e-02,
       -1.09776780e-02, -1.47688594e-02, -3.96582717e-03,
       -1.05356183e-02, 2.12346334e-02, -1.72355827e-02, 1.86078288e-02,
       9.54332110e-03, 7.39481207e-03, -1.83524285e-03, 2.01906636e-02,
       4.21418622e-03, -1.65164322e-02, 1.81427039e-02, -6.43007364e-03,
       9.81365796e-03, -8.10822286e-03, -2.15842389e-02, -7.58360000e-03,
       1.52223343e-02, 2.65523102e-02, -8.31352023e-04, 3.71741044e-05,
       4.15511336e-03, 1.86819267e-02, -4.86896001e-03, -1.46300020e-02,
       5.35831274e-03, 8.72253999e-03, 3.41844861e-03, -3.02004162e-02,
       1.52826775e-02, -1.04493881e-02, 1.20976148e-02, 3.17105204e-02,
       -6.85404986e-03, -5.14018303e-03, 2.42271069e-02, 1.72607638e-02,
       -2.22133053e-03, 1.46536594e-02, 1.78401675e-02, 1.40845962e-02,
       5.88091672e-04, -1.96391027e-02, -8.09696130e-03, 9.85961966e-03,
       7.77820731e-03, -4.27647457e-02, 5.06411726e-03, 2.11575278e-03,
       2.96401810e-02, 6.66366704e-03, -2.04365700e-02, -5.89601323e-03,
       1.85454043e-03, 1.22731738e-02, -3.53016295e-02, -3.98230068e-02,
       -3.70864058e-03, 1.60476323e-02, -1.32301720e-02, -5.68423013e-04,
       -1.98643375e-02, -5.63312415e-03, -1.95123311e-02,
       -9.82961338e-03, 5.35251619e-03, -1.29330177e-02, 2.08071638e-02,
       -1.24540320e-03, -6.33433228e-03, -2.76360027e-02,
       -2.37160232e-02, -7.15295225e-03, -1.24042826e-02,
       -7.34792883e-03, -3.82845639e-03, -9.93728451e-03, 6.34399848e-03,
       -2.39971913e-02, -1.65372752e-02, -2.71991789e-02,
       -1.92646701e-02, -3.85203809e-02, -3.19349505e-02,
       -2.03155354e-02, 2.19854470e-02, -1.31475218e-02, -2.44424734e-02,
       -3.27454740e-03, 1.76429271e-03, -1.58850420e-02, -1.22055151e-02,
       -6.35440182e-03, -2.01204885e-02, -4.08199476e-03, 7.84180738e-05,
       1.02607987e-03, -2.94333231e-02, -3.42417620e-02, -1.43079916e-02,
       1.76007816e-04, 1.66077465e-02, -1.72167114e-04, -2.71165781e-02,
       -7.97414780e-03, -2.50923093e-02, 5.73609257e-03, -1.42059335e-02,
       -2.30024885e-02, -2.09426451e-02, -2.79024150e-02,
       -1.13408230e-02, 4.79307957e-03, 6.67971512e-03, -4.15526843e-03,
       1.58194192e-02, -4.18324955e-03, -1.52468984e-03, -9.82926693e-03,
       -1.03575252e-02, -1.38886124e-02, -1.32257780e-02,
       -1.53065966e-02, -1.06632651e-03, 1.22973118e-02, -1.50175206e-02,
       1.57497256e-04, 3.46824853e-03, -3.60284820e-02, -1.53375771e-02,
       6.06118701e-03, -3.70131386e-03, -1.60025582e-02, 4.79104929e-03,
       5.96185541e-03, -1.31454524e-02, 2.14341958e-03, -1.60708968e-02,
       -2.80212387e-02, 2.31993198e-03, 2.21874062e-02, 1.98966861e-02,
       -1.49792247e-02, -1.05529223e-02, -3.74956317e-02,
       -2.05413811e-02, -5.45735136e-02, -2.33417116e-02, 3.18337884e-03,
       -2.78898329e-02, -1.53310020e-02, 1.42553905e-02, -2.15278529e-02,
       -1.43017368e-02, 2.33660135e-02, 1.72529425e-02, -1.53422030e-02,
       1.37265017e-02, 2.72993539e-02, -1.64051950e-02, -6.04953617e-03,
       -1.60372443e-02, -1.04646497e-04, -7.61650968e-03,
       -3.05025280e-02, -3.54047976e-02, 2.06322176e-03, 1.31479269e-02,
       -2.14957241e-02, 1.08328266e-02, -9.08104796e-03, -2.15296051e-03,
       1.48375863e-02, -4.51137405e-03, -1.13625014e-02, 2.03269571e-02,
       1.70224458e-02, 2.93078776e-02, 8.14488158e-03, -4.30443436e-02,
       -1.43444715e-02, -5.07766195e-02, -1.22975195e-02, 6.38068095e-03,
       1.60742290e-02, 2.14652400e-02, 1.54957864e-02, 1.28157418e-02,
       2.17503160e-02, 7.90033769e-03, -1.24352251e-03, -2.27486882e-02,
       -2.66535562e-02, 1.31737189e-02, -6.50802301e-03, -1.71679780e-02,
       -1.42206801e-02, 7.03120930e-03, -5.75021282e-03, -6.46945611e-02,
       -2.63031963e-02, -1.65742822e-02, 6.70937961e-03, -6.73776399e-03,
       -1.42552117e-02, 5.02536912e-03, 4.03128304e-02, 1.21195056e-02,
       3.16253081e-02, 2.52079573e-02, 3.26652825e-02, -1.20318076e-02,
       -1.63425822e-02, -1.63466483e-02, -2.18698345e-02, 1.82399619e-02,
       4.25990811e-03, 2.60111224e-03, -5.99114504e-03, -9.52614285e-03,
       -1.76889042e-03, -3.00283693e-02, -4.73668687e-02, 3.05479076e-02,
       2.40815952e-02, -1.07956063e-02, -1.04440888e-03, -1.22483382e-02,
       1.10580761e-04, 1.24200759e-02, -1.98386167e-03, -1.58016831e-02,
       -2.90449150e-03, 5.75237256e-03, 8.23702081e-04, -1.56871490e-02,
       -2.05561109e-02, -2.31308229e-02, 1.24172661e-02, 2.33526737e-03,
       -5.34348842e-03, -6.06620731e-03, 2.12676022e-02, -4.42032656e-03,
       1.23111028e-02, 3.93763650e-03, 9.37343203e-03, 8.12334474e-03,
       1.35252893e-04, -3.10788043e-02, -7.49002723e-03, -1.32091837e-02,
       1.68574846e-03, 2.34746244e-02, 3.55886156e-03, -2.43938100e-02,
       -8.05012975e-03, -9.25306790e-03, -2.76200153e-04, 6.49427716e-03,
       2.34364960e-02, 8.14179797e-03, 7.04398053e-03, -1.07386522e-02,
       -6.51140232e-04, -1.51881017e-03, -1.17236795e-03,
       -1.48007451e-02, 7.80858519e-03, 8.33886024e-03, 8.92648182e-04,
       8.19287915e-03, -2.65311562e-02, -1.81163922e-02, -2.02563871e-02,
       -5.48420940e-03, 4.25780611e-03, 8.40909220e-03, 1.12216901e-02,
       2.05491986e-02, 1.79722514e-02, 1.34389410e-02, -2.12699883e-02,
       -3.38209234e-02, -1.35654183e-02, 1.91146263e-03, 1.26213050e-02,
       1.82405729e-02, 1.70436744e-02, -1.04525816e-02, 1.46496771e-02,
       -1.50040621e-02, -3.17033790e-02, -6.46451954e-03,
       -8.55795387e-03, 2.11008061e-02, 2.47930549e-02, 1.04830302e-02,
       9.91148781e-03, -1.30660913e-03, 7.96916056e-03, -1.33063057e-02,
       -9.50027257e-04, 2.59703980e-03, 1.14800669e-02, -7.47547811e-03,
       -1.49146290e-02, -2.86804363e-02, -3.75470286e-03, 1.19988751e-02,
       -6.66165212e-03, -3.85660445e-03, -1.04841590e-02, 2.17542071e-02,
       1.57472193e-02, 7.46339792e-04, 2.13474245e-03, 2.08706409e-02,
       7.45455211e-04, -1.61629543e-02, 1.03812823e-02, 1.07753081e-02,
       -3.44730914e-03, 1.24951228e-02, -9.80156101e-03, 3.27013875e-03,
       3.03405407e-03, -5.87907434e-03, -1.14965057e-02, -1.01684814e-03,
       -1.65980663e-02, 1.09407520e-02, -5.50843123e-03, -1.32953674e-02,
       -1.05637684e-02, -9.73991398e-03, 2.11316682e-02, 1.56988781e-02,
       1.81258336e-04, -2.45396513e-02, -3.79142934e-03, -3.67607898e-03,
       -4.90773171e-02, -1.84029453e-02, 2.60113482e-03, -1.83207553e-03,
       4.91096862e-02, 2.40952894e-02, -2.14935411e-02, -6.35171868e-03,
       1.35511188e-02, -8.83759698e-04, -1.31845744e-02, 3.17935646e-02,
       8.22250545e-03, 1.31591009e-02, 2.08365526e-02, -1.70404017e-02,
       2.16069631e-03, 1.83310341e-02, 1.58099495e-02, -1.07056275e-03,
       7.77930580e-03, 9.95410420e-03, -2.76610139e-03, 1.36797205e-02,
       2.93044001e-03, -1.04843201e-02, 1.20295081e-02, -4.02800255e-02,
       -1.06783397e-02, 3.68206389e-03, -3.37202335e-03, 3.20410430e-02,
       1.40921241e-02, -4.34610657e-02, -2.90264934e-03, 1.72670055e-02,
       3.46902001e-04, -1.40750222e-02, 7.07220891e-03, 1.07049448e-02,
       6.35986449e-03, -1.18695442e-02, -4.30695191e-02, 1.50591861e-02,
       3.06584816e-02, 5.70781482e-03, -9.89069045e-03, -1.87449213e-02,
       -2.62869988e-02, -1.42163113e-02, 6.44597085e-03, 2.48982646e-02,
       1.67044122e-02, -7.02625932e-03, -2.62678321e-03, 2.36575981e-03,
       1.44389654e-02, -1.27759483e-02, -1.65021711e-03, -3.40464935e-02,
       2.66775265e-02, 7.65546225e-03, 1.23227276e-02, 4.13369108e-03,
       -2.93129385e-02, 5.88236004e-03, 6.42106635e-03, 9.03943460e-03,
       -9.56455246e-03, -1.14011969e-02, 1.61182135e-02, -9.14226845e-03,
       3.58131947e-03, -1.07119652e-02, 1.38994830e-04, -1.64019540e-02,
       1.38554377e-02, -5.40184183e-03, 4.02575284e-02, -1.06431171e-02,
       2.18151836e-03, -2.32702657e-03, 7.23598758e-03, 3.24779563e-03,
       -2.10485002e-03, 8.02944228e-03, -2.45720111e-02, -7.50800082e-03,
       -4.76206141e-03, -1.60181541e-02, 1.19330722e-03, -1.46863973e-02,
       4.45873523e-03, -1.39334118e-02, 2.82486938e-02, -9.62662604e-03,
       1.04213590e-02, -2.47726794e-02, 3.47209955e-03, 2.16472279e-02,
       1.66135281e-02, 5.59915882e-03, -1.04159508e-02, 1.08353794e-02,
       -1.94887668e-02, -1.27156656e-02, -1.33723756e-02,
       -2.53369138e-02, -2.82107037e-04, 1.45779736e-02, -2.67406087e-03,
       -1.61717851e-02, 3.10625993e-02, -2.30714818e-03, 1.48078743e-02,
       -8.52940883e-03, -3.28029017e-03, 2.64676791e-02, 8.58321972e-03,
       4.32489999e-02, -5.19305980e-03, -3.77238845e-03, 1.99707858e-02,
       3.45598115e-03, -1.38676139e-02, -1.65271922e-03, 2.51356568e-02,
       -7.73366448e-03, 2.43588407e-02, 1.55759859e-04, -1.03957485e-03,
       -1.03247520e-02, -2.00864803e-02, -1.84424128e-02,
       -3.21524926e-02, -1.32699432e-02, 3.87675618e-03, -1.13863694e-02,
       -1.20416442e-02, 2.14211475e-02, 4.87265177e-03, 6.39327336e-03,
       -1.22233797e-02, -2.96756532e-02, 1.51846826e-03, -8.56499840e-03,
       -3.96651067e-02, -1.86776575e-02, 3.12515115e-03, -6.10671565e-03,
       6.59083063e-03, 1.37841878e-02, 1.76915973e-02, 1.42899482e-02,
       -9.71565861e-03, 2.79425494e-02, -2.25743763e-02, 7.54955364e-03,
       -9.65819508e-03, 1.55238332e-02, 3.39656346e-03, -7.72663904e-03,
       -2.44981516e-03, 1.44588621e-03, 1.73659287e-02, -2.98651829e-02,
       -1.07265625e-03, -2.62715593e-02, 5.77073358e-03, -2.13071308e-03,
       -8.35849345e-03, 3.25306132e-02, 5.60354441e-03, -1.16316900e-02,
       -2.36514844e-02, -1.86321128e-03, -7.52326148e-03, 1.16894944e-02,
       -2.25577168e-02, -1.14043783e-02, 1.38211306e-02, 1.24343121e-02,
       -4.35779989e-02, 4.62603709e-03, 1.46541111e-02, -3.30563961e-03,
       -8.58517736e-03, 1.05843358e-02, 3.95147912e-02, 1.13454554e-02,
       2.71124393e-03, 1.57183893e-02, 2.44284049e-03, 1.59104336e-02,
       -1.42466454e-02, -4.05174959e-03, 1.73496716e-02, 2.30628885e-02,
       1.45194102e-02, 2.37430283e-03, -5.93350269e-03, 5.04362443e-03,
       1.63165163e-02, -2.37595923e-02, -2.81806570e-02, -4.39150166e-03,
       1.22593231e-02, -1.05564762e-02, -6.07463997e-03, -1.30396066e-02,
       1.09237321e-02, 4.48885523e-02, 1.97524596e-02, -1.69802085e-02,
       6.98027667e-03, 7.66867399e-03, 1.03518916e-02, -8.28961655e-03,
       -2.50329748e-02, -2.06431895e-02, 3.01682223e-02, 2.17185379e-03,
       -3.15810950e-03, 1.19714859e-04, 1.14804888e-02, 1.33102853e-02,
       -2.49919090e-02, 2.70299129e-02, 1.43322274e-02, 9.37645044e-03,
       -7.52098439e-03, -2.10307930e-02, -3.29296407e-03,
       -1.79293833e-03, 2.28966158e-02, -2.44624037e-02, 4.34152363e-03,
       -1.15895150e-02, 2.58808432e-04, 1.11223862e-03, -1.37658673e-03,
       2.62787398e-02, 2.20279954e-02, 1.60533227e-02, -4.19936702e-03,
       3.32818441e-02, 2.99172336e-03, -2.25019990e-03, -1.77178718e-02,
       -1.15978858e-03, 2.08231378e-02, 3.45480884e-03, 1.97468661e-02,
       -5.46385953e-03, -2.49324855e-03, -1.43348463e-02,
       -2.17213202e-02, -6.94685942e-03, 6.44532638e-03, 7.86785875e-03,
       -1.35404207e-02, -1.03164492e-02, -1.90485325e-02, 9.15474351e-03,
       -2.19142940e-02, 1.22139892e-02, 2.82836682e-03, -2.77188979e-03,
       7.39515759e-04, -1.40742091e-02, -2.36946829e-02, -2.94289608e-02,
       3.74265946e-03, -8.31613131e-03, -1.84241205e-03, 1.97113529e-02,
       -8.32267944e-03, 1.15775475e-02, -2.67186631e-02, -1.15124919e-02,
       -1.08309174e-02, 3.08566671e-02, -2.04869285e-02, -1.05483634e-02,
       -8.48268345e-03, -1.54102072e-02, 1.21998619e-02, -5.11073414e-03,
       -4.10508132e-03, -1.42458733e-02, -1.09519605e-02,
       -9.13767051e-03, 1.49234617e-02, 1.00580743e-02, 7.65230786e-03,
       6.96354685e-03, 2.98956060e-03, -3.86886648e-03, -2.10827701e-02,
       -3.96853499e-03, -1.24237789e-02, -1.86435934e-02,
       -4.11588466e-04, 1.57213118e-02, -2.27446798e-02, -9.46359430e-03,
       1.81133430e-02, -2.49908795e-03, 2.30409927e-03, -8.04787129e-03,
       9.36928205e-03, 1.36473798e-03, -1.41679274e-03, 1.01013354e-03,
       1.24764396e-02, 6.57978281e-03, -1.31000979e-02, -3.98175158e-02,
       -1.36569459e-02, 2.08516680e-02, 1.32678756e-02, 1.38274506e-02,
       -2.46051122e-02, -2.08270289e-02, 3.01697981e-02, -5.90232387e-03,
       -5.51433153e-02, -1.60045698e-02, 2.72558760e-02, 1.09098935e-02,
       -7.43808318e-03, -1.02115180e-02, -6.25883602e-03, 1.92077905e-02,
       -1.30914422e-02, 1.55262221e-02, -1.89476181e-02, 1.65925995e-02,
       2.38571279e-02, -9.13559645e-03, 1.11760758e-03, 1.03885951e-02,
       9.97088943e-03, 5.62741770e-04, -8.87652510e-04, -1.89676285e-02,
       -7.43393600e-03, 1.41668674e-02, -3.70528586e-02, -1.92059539e-02,
       -1.59820169e-02, 1.65397301e-02, -8.94675776e-03, -3.59790353e-03,
       -1.81581341e-02, -2.88722944e-03, 1.78568042e-03, -1.40979392e-02,
       1.80294346e-02, -1.55043614e-03, -1.33202728e-02, 6.38172403e-03,
       -1.44207608e-02, -2.26361640e-02, -1.56258587e-02, 2.06206720e-02,
       9.29533038e-03, -1.01815509e-02, 3.21181491e-02, 1.06874760e-02,
       -1.88075304e-02, 2.42131995e-03, -2.08597649e-02, -2.37874091e-02,
       -1.10722147e-02, -3.49153019e-02, -3.40828896e-02, 3.75003815e-02,
       9.63770598e-03, -5.51527925e-02, -4.28321585e-02, -2.82783136e-02,
       -2.63378993e-02, -8.18635430e-03, -4.65113744e-02, 2.30773147e-02,
       6.76907599e-03, -1.77728962e-02, -2.88505424e-02, 2.74890456e-02,
       -1.93100274e-02, -2.58034766e-02, 1.46980034e-02, 1.76490913e-03,
       -7.31443428e-03, 3.04058883e-02, -1.13850338e-02, -3.64411138e-02,
       -3.40670869e-02, -2.22517010e-02, -1.05894702e-02, 5.11116022e-03,
       1.18694147e-02, 1.40400054e-02, 2.38555018e-02, -2.11494304e-02,
       -3.43300477e-02, -2.33031567e-02, -5.46224741e-03, 1.15953349e-02,
       6.20211614e-03, 9.59817786e-04, -2.00880188e-02, -3.80139519e-03,
       -1.70596130e-02, -8.55281018e-03, 2.05166601e-02, 1.18549005e-03,
       -8.40579276e-04, 1.61864385e-02, -1.68409944e-02, 2.97788996e-02,
       2.87742075e-03, -1.78863760e-02, -1.13834930e-03, -3.46293561e-02,
       -6.81429822e-03, 8.17987695e-03, 2.52845045e-02, 3.30389887e-02,
       -5.01530897e-03, 5.56870457e-03, 1.92752723e-02, 4.09263894e-02,
       2.06442680e-02, 1.88071094e-02, 2.86285300e-02, 5.01534808e-03,
       -5.40798239e-04, -1.38106262e-02, 1.50247570e-03, -1.69510848e-03,
       1.78796034e-02, 3.32190320e-02, 1.42152561e-02, 6.53182855e-03,
       3.92168686e-02, -1.38661237e-02, 1.02983015e-02, 1.66327488e-02,
       2.88417991e-02, 1.05208689e-02, 2.91216467e-02, -1.43239517e-02,
       6.18423452e-04, 7.97095709e-03, -1.02942493e-02, -4.27868264e-03,
       -3.13616358e-03, 4.47529787e-03, 2.28503067e-02, 1.79235060e-02,
       2.31452901e-02, 2.92977635e-02, 2.62843370e-02, -6.24842197e-03,
       -1.00002820e-02, -4.42977510e-02, -9.47285630e-03,
       -2.14102380e-02, 1.85324121e-02, -2.59529310e-03, 1.40912458e-02,
       1.72391552e-02, 1.26633223e-03, -3.59775103e-03, 2.14387607e-02,
       1.67720988e-02, -1.52115792e-03, -9.24570393e-03, -8.58553045e-04,
       7.29923043e-03, 4.01857356e-03, -6.43830746e-03, 9.86349955e-03,
       8.35121100e-05, -1.14865024e-02, -2.78582815e-02, -7.14826630e-04,
       -1.20997960e-02, -1.72027778e-02, 6.71606185e-03, -1.21738401e-03,
       -1.12545397e-02, 3.62286577e-03, 8.58739670e-03, -1.24171879e-02,
       3.82037950e-03, 5.98402868e-04, 2.08741166e-02, 3.20739783e-02,
       1.53462319e-02, 3.98024917e-03, -2.57741176e-02, -1.97846275e-02,
       -1.62827894e-02, -2.29478627e-02, -3.63531373e-02,
       -2.33949424e-04, 3.11274435e-02, 3.96493822e-02, 2.88918950e-02,
       -2.49452307e-03, 5.14153251e-03, -2.24376153e-02, 7.03869062e-03,
       -1.11999400e-02, -4.84257611e-03, -4.20619687e-03,
       -7.54403044e-03, 9.72330756e-03, 5.47404308e-03, -3.11468598e-02,
       -1.63958464e-02, 9.44458507e-03, -3.00113752e-04, 2.11350229e-02,
       -9.29985847e-03, -2.91664284e-02, 1.45102460e-02, -6.44670147e-03,
       -4.53133980e-04, -1.41129550e-02, -2.28640866e-02,
       -4.03742492e-02, -2.43631680e-03, 8.75339378e-03, 1.73003618e-02,
       4.03355155e-03, 1.57689843e-02, -3.15299025e-03, -1.61485514e-03,
       -1.03983814e-02, -2.31879181e-03, -3.51579598e-04,
       -3.78364101e-02, -1.47907725e-02, 2.16658097e-02, 2.03042589e-02,
       -2.47277971e-02, 5.63319121e-03, 2.14913692e-02, -6.25870330e-03,
       2.54468527e-02, 1.99375246e-02, -6.32473733e-03, 1.45318490e-02,
       1.28304381e-02, 2.12379918e-03, 1.80915147e-02, -2.12384597e-03,
       -1.62702333e-02, 6.04365068e-03, -4.09963727e-03, -3.24168243e-02,
       2.68045440e-02, 3.48555744e-02, 1.83077424e-03, -1.67228328e-03,
       -1.05594974e-02, -1.47685511e-02, 7.29380082e-03, -8.01568199e-03,
       1.33541776e-02, -1.00913655e-03, -1.11175468e-02, -1.94155294e-02,
       3.37657542e-03, -5.64039387e-02, -3.14276330e-02, 9.80071910e-03,
       -8.51349160e-03, 1.09529905e-02, -9.02598910e-03, 1.91071164e-03,
       -7.93596089e-04, -3.97295505e-03, -5.97807206e-03,
       -9.10268445e-03, -1.98473502e-03, 7.80665968e-03, -2.48427801e-02,
       -9.85331647e-03, -2.12069950e-03, -4.01647203e-03,
       -1.22904647e-02, 1.15294680e-02, 3.22381267e-03, 2.57887458e-03,
       -9.15314350e-03, 2.34423811e-03, -8.67651310e-03, -6.35696400e-04,
       -2.24271845e-02, 2.83286162e-03, 2.95835198e-03, -1.02761667e-02,
       -6.16020197e-03, 2.36266814e-02, 6.59323204e-03, 3.01219872e-03,
       1.33307592e-03, -2.27601454e-02, 7.78077543e-03, 1.03448788e-02,
       5.45646809e-03, 1.46319754e-02, 5.56796929e-03, 1.59805845e-02,
       -1.57237649e-02, 2.17240620e-02, 3.04406658e-02, 1.99113395e-02,
       4.39730287e-02, 4.04758705e-03, -4.68743127e-03, -3.30057531e-03,
       -1.03692338e-02, -2.65685059e-02, -1.18966233e-02,
       -8.28797522e-04, 2.40641776e-02, 1.74910892e-02, -7.25993700e-03,
       -1.06279021e-02, -2.83707352e-03, -4.59935796e-03,
       -1.79429557e-02, 5.70585579e-03, 1.25305923e-02, 1.55416718e-02,
       9.64207388e-03, -2.59563141e-03, -1.45998166e-03, 4.09533083e-03,
       -5.98090887e-03, -6.63057668e-03, -3.47883673e-04, 2.02732831e-02,
       -6.73343753e-03, -1.94330644e-02, -2.27781329e-02,
       -1.34241832e-02, 9.30086896e-03, 4.58294712e-03, -2.32605748e-02,
       -2.78185774e-02, -1.47953946e-02, 6.05669711e-03, 3.22494074e-03,
       -1.38528682e-02, 1.00995693e-02, 2.51366179e-02, 2.05328818e-02,
       1.13173213e-03, -1.59631912e-02, 5.01687638e-03, 1.98627327e-04,
       -2.99189799e-02, -3.23978439e-02, -4.55521792e-03, 1.28387110e-02,
       2.42430507e-03, -3.72659438e-03, 4.74838354e-03, 1.26746055e-02,
       6.60292106e-03, -1.78893644e-03, -1.24224592e-02, -4.76579834e-03,
       9.21019446e-03, 2.40769368e-02, -2.54202331e-03, 2.10391432e-02,
       3.87087688e-02, 3.71789560e-02, -9.56205186e-04, 1.86569598e-02,
       1.24826180e-02, 9.39746015e-03, 1.50179593e-02, 1.09056411e-02,
       1.43425912e-02, 1.88273713e-02, 4.36224230e-03, 1.03820283e-02,
       -1.52614843e-02, 7.25273602e-03, -1.66874065e-03, 2.05305684e-03,
       -1.69429835e-03, 1.03064086e-02, 1.65551645e-03, -9.80706071e-04,
       1.28839156e-02, 1.98437180e-02, 1.93262082e-02, -1.95611510e-02,
       -1.56362336e-02, 3.80374049e-03, 1.80808939e-02, 1.80716664e-02,
       1.36624603e-02, 1.35195302e-03, 2.99881375e-03, 7.34217511e-03,
       1.48543464e-02, -3.65592097e-03, 2.77868845e-02, 9.78485681e-03,
       -1.23934038e-02, -2.53700726e-02, -2.64295526e-02,
       -5.27945254e-03, -9.80643369e-03, 2.14187372e-02, 2.87450217e-02,
       6.00645144e-04, 2.81514991e-02, -9.72982682e-03, -7.73151126e-03,
       3.64877805e-02, 4.43069404e-03, 3.40059213e-02, 2.06977595e-02,
       -2.47877240e-02, -5.96370082e-03, 2.82150134e-02, 3.87509987e-02,
       1.14670098e-02, 2.74289846e-02, -8.02285224e-03, 1.69410631e-02,
       7.32719107e-03, -2.57398970e-02, 5.84298512e-03, 6.45354157e-03,
       -1.63179878e-02, -1.58493239e-02, 1.41151121e-03, -3.47242542e-02,
       2.39306362e-04, 1.34234354e-02, 1.40458085e-02, -1.75784319e-03,
       3.24697321e-04, 2.43098307e-02, 6.73828600e-03, 1.04315113e-03,
       -1.47423176e-02, -9.46349837e-03, 1.92153000e-03, 9.93581116e-03,
       5.83956251e-03, 3.40403877e-02, 1.34447673e-02, 1.88572556e-02,
       4.26650979e-02, -1.81398019e-02, -1.48360226e-02, -9.24251229e-03,
       -7.42692593e-03, -7.93626714e-06, -4.89924615e-03, 8.72658973e-04,
       2.61014001e-03, 2.29558144e-02, -1.46191921e-02, -3.28242220e-02,
       -5.00510738e-04, -1.61850650e-04, 1.25475535e-02, 7.91770965e-03,
       5.92605257e-03, 5.55260153e-03, 1.02065466e-02, -2.37262491e-02,
       -3.13601154e-03, -1.05142435e-02, 2.18966114e-03, 1.99715830e-02,
       -1.27417119e-02, 9.12146736e-03, 1.93926529e-03, -1.15356576e-02,
       -1.31563554e-02, 9.82888322e-03, 2.61982525e-04, 3.20334323e-02,
       3.53265065e-03, 2.43093981e-03, 1.29797598e-02, -1.31227693e-03,
       4.31875139e-02, -1.81126711e-03, -1.71722993e-02, 1.14331143e-02,
       -4.54439502e-03, 8.04002769e-03, 2.61033475e-02, 1.60263702e-02,
       -2.22313479e-02, 3.03957034e-02, -2.12327335e-02, 3.06013692e-03,
       7.44982390e-03, 8.61179200e-04, 1.48896244e-03, 3.25500011e-03,
       2.77419109e-02, -2.98325415e-03, 3.47409607e-03, 1.52490917e-03,
       1.04038315e-02, 1.02902288e-02, 3.45909386e-03, 4.15907800e-03,
       1.00157065e-02, 2.20793970e-02, -1.32488599e-02, -9.63291340e-03,
       -1.08102709e-02, 3.34313349e-03, 8.07051547e-03, -5.29496884e-03,
       -6.70041004e-03, 8.49666074e-03, 2.03288000e-04, -1.23050269e-02,
       2.07045283e-02, -2.14652903e-03, 1.90123394e-02, 5.35401469e-03,
       1.24814489e-03, -3.07639856e-02, 2.43305718e-03, 3.25856283e-02,
       5.53940376e-03, -1.10673238e-04, -1.89627148e-02, 1.03066387e-02,
       -1.28757060e-02, -2.01635491e-02, -2.53428873e-02,
       -2.12680344e-02, -4.86794673e-03, 8.05745739e-03, 1.72794685e-02,
       8.33924673e-03, 3.13639976e-02, 2.04186197e-02, -4.47562849e-03,
       -3.34985815e-02, -8.28130823e-03, 4.78373468e-02, -1.05160084e-02,
       3.68454703e-03, -9.68603231e-03, 6.23062532e-03, -1.91796906e-02,
       -1.94027163e-02, -1.57002937e-02, 1.86347850e-02, 2.18000617e-02,
       8.47755582e-04, 7.02914782e-03, -1.21503314e-02, -8.34766496e-03,
       5.51781943e-03, -1.07676582e-02, -5.99792181e-03, 7.28980638e-03,
       -2.28382815e-02, 2.14728224e-03, -3.74564482e-03, -1.24674579e-02,
       1.28454939e-02, 2.98525281e-02, 1.57522503e-02, -1.00709512e-04,
       5.00474609e-02, 4.24745046e-02, -1.93513501e-02, -8.16532969e-03,
       -1.46978861e-02, 1.57747287e-02, -2.74769645e-02, -3.12439911e-02,
       4.86994395e-03, 3.70447822e-02, 1.04129827e-02, -2.85428911e-02,
       -3.23239826e-02, -2.66466774e-02, 9.92221013e-03, -2.58778199e-03,
       -1.92243475e-02, -8.71609664e-04, -5.13794646e-03,
       -1.09889898e-02, -2.23569805e-03, 5.40483892e-02, -2.78451853e-02,
       -2.48979963e-02, 1.98844392e-02, 1.66202225e-02, -1.93691719e-02,
       1.61756370e-02, -7.50960922e-03, -1.20525211e-02, -2.92767063e-02,
       3.30668874e-03, 7.72392470e-03, 2.44825352e-02, 7.32465414e-03,
       -1.13315955e-02, 3.61441635e-03, -1.37592340e-02, -1.65341627e-02,
       -3.54874996e-03, -2.50883494e-02, -1.11767882e-02,
       -4.33453452e-03, -2.70173848e-02, -9.93539859e-03, 9.65926331e-03,
       -2.05621067e-02, -2.58760005e-02, -2.47839130e-02, 3.91607592e-03,
       1.43403197e-02, 2.48669889e-02, -5.26163075e-03, 1.13462806e-02,
       -5.14569553e-03, -2.97187250e-02, 2.22430192e-03, -1.72786824e-02,
       -1.25512779e-02, -2.73030763e-03, 2.22356077e-02, 2.02104319e-02,
       -9.09363478e-03, -9.26429126e-03, -1.12227323e-02, 4.83733090e-03,
       -3.50697264e-02, -4.36749216e-03, 1.85328507e-04, -1.13396719e-02,
       -3.64732780e-02, 4.62714806e-02, 4.06433083e-03, 1.14332640e-03,
       3.59688140e-02, 2.76468676e-02, 3.15371975e-02, 5.05419485e-02,
       4.36904579e-02, 5.30763119e-02, -1.67112576e-03, -1.37221683e-02,
       -4.09176387e-02, -1.46157090e-02, -3.10982969e-02, 3.01135443e-02,
       2.17223801e-02, 3.70708331e-02, 9.76034999e-03, -1.82877518e-02,
       4.81238216e-03, 3.44158965e-03, -2.53766339e-04, -2.36049369e-02,
       4.68605477e-03, -2.71640345e-03, 1.80970691e-02, -2.28125192e-02,
       -3.22621106e-03, -1.17502762e-02, -3.85310012e-03,
       -1.70724168e-02, 1.08206719e-02, -2.37195250e-02, -2.99741793e-02,
       5.07055316e-04, -5.27993729e-03, 2.53946777e-03, 1.56540815e-02,
       -2.63511599e-03, -6.57967478e-03, 1.12233041e-02, 2.73290724e-02,
       1.57483499e-02, 2.72849873e-02, -2.66399863e-03, 1.30901430e-02,
       4.71559092e-02, 2.77493335e-02, 2.75286904e-04, 3.22408341e-02,
       7.23102503e-03, -1.49296988e-02, -3.70767014e-03, 9.31841042e-03,
       -2.46578343e-02, 4.27935366e-03, 8.14482383e-03, -1.20725157e-02,
       2.71457285e-02, 1.03771070e-03, -5.63079119e-03, 9.46039986e-03,
       -9.54274181e-03, -2.17494480e-02, -2.09713820e-02,
       -1.53960520e-02, -1.21005112e-02, 2.52935244e-03, -2.63257939e-02,
       -1.50096882e-02, 7.38376938e-03, -1.14950549e-03, -5.51486807e-03,
       4.49302718e-02, 3.35472301e-02, 1.08749215e-02, 6.49528764e-03,
       2.15758458e-02, 6.11785054e-03, -1.56425815e-02, -1.89261492e-02,
       -2.79043633e-02, -1.30278738e-02, 9.23383050e-03, -8.48751608e-03,
       -2.24211439e-02, -1.40004344e-02, -2.66299304e-03,
       -8.94646347e-03, -6.33524638e-03, -4.30213567e-03, 7.35764066e-03,
       8.87014717e-03, 6.27898099e-03, 9.00562946e-03, 2.73596193e-03,
       1.38319575e-03, 2.97218878e-02, 1.03080198e-02, 2.98572209e-04,
       1.95000619e-02, -1.64166857e-02, 1.21768471e-03, -1.03483507e-02,
       -1.51942577e-03, -2.69071814e-02, -1.90037042e-02,
       -6.17704121e-03, -1.81883592e-02, 1.42732859e-02, 1.40666345e-03,
       8.51198658e-03, -2.75835339e-02, 6.49531651e-03, -4.06624342e-04,
       2.59482227e-02, -4.74013295e-03, -1.39002583e-03, 9.78971133e-04,
       -1.93237215e-02, 6.34939084e-03, -7.75547698e-02, -1.17683858e-02,
       -1.97639540e-02, -1.05851740e-02, -1.17433658e-02, 4.51127952e-03,
       3.39652412e-02, 1.11254295e-02, 5.71183069e-03, 2.42126919e-02,
       1.75453518e-02, 7.68777542e-03, 2.91484594e-03, 3.98547435e-03,
       -2.09654141e-02, 2.35647075e-02, -1.09862408e-03, 1.14250006e-02,
       -3.09065040e-02, -1.17312968e-02, 1.01938080e-02, -1.99970920e-02,
       -1.90163236e-02, -1.33416206e-02, 2.00335565e-03, -8.90788157e-03,
       1.36794406e-03, -2.09857803e-02, 1.97395124e-02, 4.47065160e-02,
       2.17953846e-02, 1.93920322e-02, -2.21400987e-02, 6.25949446e-03,
       1.57203234e-03, -2.85912305e-02, -5.40818367e-03, -1.77538972e-02,
       5.59270494e-02, 4.61669862e-02, 2.87915906e-03, -1.46312322e-02,
       1.62173063e-02, -1.08396886e-02, 1.24105420e-02, 1.35321692e-02,
       -1.22604324e-02, -1.69145800e-02, -1.20049473e-02,
       -2.66733505e-02, 7.40836095e-03, 1.44204861e-02, 2.92697363e-03,
       2.32795421e-02, 3.11011951e-02, -1.34771802e-02, 7.19741173e-03,
       3.20009049e-03, 7.44160498e-03, -5.87265985e-03, 1.12645030e-02,
       -1.49717845e-03, -2.30767708e-02, -4.17912938e-03,
       -2.50782184e-02, -6.58526551e-04, -4.97006951e-03,
       -2.48580631e-02, -1.76967941e-02, 2.29652086e-03, -6.14858465e-03,
       -1.50396384e-03, -4.95786555e-02, -2.42342390e-02, 7.71309016e-03,
       4.25181491e-03, -1.91162471e-02, 1.49513897e-03, -8.24899878e-03,
       1.85310899e-03, 2.71934047e-02, 3.02461833e-02, -9.13567259e-04,
       -4.50309319e-03, 2.70139985e-02, 2.44506095e-02, 9.23073664e-03,
       -1.21806795e-02, -8.89058691e-03, -1.80841945e-02, 1.72935415e-03,
       -2.42424849e-02, 4.14118357e-03, 1.21632405e-02, 1.30884917e-02,
       -1.25822490e-02, -1.90928858e-02, 6.50568306e-03, -2.23147427e-03,
       4.39577643e-03, -8.78183916e-03, 1.15250135e-02, 4.31932546e-02,
       -1.78395286e-02, -1.40292626e-02, -1.19343791e-02, 5.97056700e-03,
       -2.04416160e-02, -3.88194341e-03, -1.32058654e-02, 1.35531491e-02,
       1.59135405e-02, -2.55489964e-02, 4.66532307e-03, 2.46855547e-03,
       2.67568883e-03, 7.56937079e-04, 4.26597334e-02, -1.64108304e-03,
       2.40167473e-02, 3.72525537e-03, 2.23636273e-02, -1.12045417e-02,
       -6.59978855e-03, -8.78101401e-03, -4.81898105e-03, 5.44957034e-02,
       2.70555876e-02, 3.61406952e-02, 3.45560862e-03, -2.43396289e-03,
       6.89566415e-03, -2.23717792e-03, -5.14799077e-03, -1.10914828e-02,
       -5.98411076e-03, -1.87356398e-02, 3.21500078e-02, 3.64522524e-02,
       2.36381628e-02, -1.65655408e-02, 2.24142428e-03, 5.15882066e-03,
       -1.57292504e-02, -4.34218496e-02, -1.45214656e-02, 3.33403461e-02,
       5.25596961e-02, 2.55842749e-02, -1.34531725e-02, -6.44350564e-03,
       2.56639486e-03, -3.11477366e-03, 4.88348231e-02, 4.11835179e-04,
       1.99793372e-02, 2.21650545e-02, 6.57437555e-03, 4.74158907e-03,
       6.83509931e-03, 2.28689751e-03, -2.92229075e-02, 1.10636558e-02,
       -2.10500360e-02, -1.71802286e-02, 1.23768775e-02, 1.79218892e-02,
       -1.11219566e-02, -6.15695398e-03, 7.06850365e-03, -1.04270754e-02,
       -9.47522093e-03, -2.14991365e-02, 1.44709349e-02, 3.50282602e-02,
       1.32400477e-02, -4.91226278e-03, -1.59438644e-02, 2.38661431e-02,
       1.38907470e-02, 2.39551999e-02, 3.08816452e-02, 4.18092646e-02,
       3.21281664e-02, 1.44788586e-02, 8.33570771e-03, 2.69522071e-02,
       -1.25787556e-04, -1.45180942e-02, 1.91700738e-02, -3.18760276e-02,
       -1.54611170e-02, -6.24662731e-03, 1.91224907e-02, -1.17364051e-02,
       -4.10507573e-03, 1.88477188e-02, 1.96475126e-02, -1.63708217e-02,
       -2.02521980e-02, -8.81487411e-03, -2.06948426e-02,
       -2.42200214e-03, -4.76978428e-04, 9.68059117e-04, 3.19619812e-02,
       7.33465003e-03, 1.75957549e-02, 2.67441645e-02, 3.13758850e-02,
       2.71319486e-02, 3.68100754e-03, -2.09737141e-02, -1.29743468e-03,
       4.48929518e-02, 3.24530527e-02, -4.35626023e-02, -8.52364674e-03,
       1.91719569e-02, 6.25755498e-03, -1.02658262e-02, -2.58390995e-04,
       -9.01648495e-03, 5.23545220e-03, -8.82586092e-03, 2.52985135e-02,
       -2.21470445e-02, 7.82113895e-03, 9.48487502e-03, 2.34239595e-03,
       1.95056722e-02, -7.12235738e-03, 5.71902702e-03, -3.46684121e-02,
       2.23029628e-02, -2.69974247e-02, 7.25705409e-03, 1.19894538e-02,
       2.24042404e-02, -9.37620644e-03, -6.08222000e-03, 1.54698491e-02,
       7.12291105e-03, 1.16440505e-02, -1.45658934e-02, 2.35136785e-02,
       2.56241709e-02, -1.44494735e-02, -2.82152230e-03, -6.93007256e-04,
       -5.27524622e-03, -4.28439304e-02, -2.42420658e-02,
       -4.57667373e-02, 1.56020252e-02, 3.15848663e-02, 8.81075393e-03,
       2.42141844e-03, -3.84689122e-03, 1.77158434e-02, -1.50077799e-02,
       -5.73671982e-03, -2.65374966e-02, -1.11476323e-02,
       -4.74538421e-03, 7.81002548e-03, -2.27528997e-03, 1.94739494e-02,
       1.14718648e-02, 5.48689626e-03, 1.33705800e-02, -1.48201985e-02,
       9.35614668e-03, 6.43697241e-03, 6.29229192e-03, -5.92602789e-03,
       2.29720306e-02, 2.11383011e-02, -2.45171357e-02, -3.03177107e-02,
       -5.38563840e-02, -7.65646528e-03, -2.29122746e-03, 9.73931607e-03,
       -1.64743159e-02, 1.65908020e-02, 3.39479037e-02, 1.70304347e-02,
       -2.22666245e-02, -2.69834977e-02, 1.75797641e-02, -8.93711951e-03,
       6.05129125e-03, -9.50109120e-03, 1.70848910e-02, 1.36179365e-02,
       3.13900481e-03, 2.16145162e-02, 8.60602036e-03, 3.18879075e-02,
       4.61865915e-04, 1.65693738e-04, -2.14911085e-02, 9.33024380e-03,
       1.48851229e-02, -5.87376393e-02, -6.07611891e-03, -1.56970210e-02,
       6.36411458e-03, -1.76811907e-02, -1.91824622e-02, -3.68380104e-03,
       2.30131112e-02, 3.83767523e-02, 2.07315162e-02, -9.92251677e-04,
       -1.48434183e-02, 1.47118969e-02, -7.82045815e-03, -1.15606273e-02,
       -1.01794600e-02, 7.70080136e-03, 2.07015816e-02, -4.37465571e-02,
       -1.61781311e-02, -4.23850566e-02, -2.77241226e-02,
       -1.13523444e-02, -5.47160627e-03, -6.51312852e-03, 3.04255672e-02,
       2.10425034e-02, -3.32932882e-02, 1.44382687e-02, -1.37610193e-02,
       1.51869655e-02, -4.73736925e-03, -1.60236992e-02, -1.88615564e-02,
       1.33979023e-02, 1.91118792e-02, -4.90849884e-03, -2.48097611e-04,
       1.35309892e-02, 4.69022095e-02, -1.53168840e-02, -3.75320166e-02,
       -8.14393442e-03, 1.16634869e-03, -4.47915308e-03, -1.05888778e-02,
       1.59404427e-02, -5.97464340e-03, 1.88479293e-03, 1.58743095e-02,
       -1.89675819e-02, -1.23079587e-03, 9.12412815e-03, 4.54657450e-02,
       6.06241962e-03, 1.22011891e-02, -1.55223683e-02, 3.23319733e-02,
       9.41288818e-05, -5.34002902e-03, -1.44107044e-02, -3.03407153e-03,
       1.07347695e-02, -6.20217295e-04, 3.21511552e-02, 5.35638398e-03,
       2.04814095e-02, 2.74077436e-04, -4.69834954e-02, -5.95354103e-03,
       9.93579254e-03, 1.84783302e-02, -1.76517349e-02, 5.00002597e-03,
       -5.10102417e-03, 3.39014009e-02, 7.94308353e-03, -2.26667803e-02,
       8.84503592e-03, -7.03610945e-03, 5.27722090e-02, -1.63282659e-02,
       4.71075531e-03, -2.88252980e-02, 1.36429016e-02, -1.13551300e-02,
       1.29123032e-02, 1.39255552e-02, -1.14044733e-02, 2.82358397e-02,
       -3.65666412e-02, -8.68926011e-03, -2.69824341e-02, 1.04707619e-02,
       -3.02081238e-02, 1.98847260e-02, -1.64748639e-01 ]
